digraph Tree {
node [shape=box, style="filled, rounded", color="black", fontname="helvetica"] ;
edge [fontname="helvetica"] ;
0 [label="Calendar Year <= 1981.0\ngini = 0.958\nsamples = 24\nvalue = [1, 1, 1, 1, 1, 1, 1, 1, 1, 1, 1, 1, 1, 1\n1, 1, 1, 1, 1, 1, 1, 1, 1, 1]\nclass = [", fillcolor="#ffffff"] ;
1 [label="gini = 0.0\nsamples = 1\nvalue = [0, 0, 0, 0, 0, 0, 0, 0, 0, 0, 0, 0, 0, 0\n0, 0, 1, 0, 0, 0, 0, 0, 0, 0]\nclass = 6", fillcolor="#8139e5"] ;
0 -> 1 [labeldistance=2.5, labelangle=45, headlabel="True"] ;
2 [label="Full-Time (est) Guard+Reserve <= 48000.0\ngini = 0.957\nsamples = 23\nvalue = [1, 1, 1, 1, 1, 1, 1, 1, 1, 1, 1, 1, 1, 1\n1, 1, 0, 1, 1, 1, 1, 1, 1, 1]\nclass = [", fillcolor="#ffffff"] ;
0 -> 2 [labeldistance=2.5, labelangle=-45, headlabel="False"] ;
3 [label="gini = 0.0\nsamples = 1\nvalue = [0, 0, 0, 0, 0, 0, 0, 0, 0, 0, 0, 0, 0, 0\n0, 0, 0, 0, 1, 0, 0, 0, 0, 0]\nclass =  ", fillcolor="#d739e5"] ;
2 -> 3 ;
4 [label="Self-Inflicted <= 151.5\ngini = 0.955\nsamples = 22\nvalue = [1, 1, 1, 1, 1, 1, 1, 1, 1, 1, 1, 1, 1, 1\n1, 1, 0, 1, 0, 1, 1, 1, 1, 1]\nclass = [", fillcolor="#ffffff"] ;
2 -> 4 ;
5 [label="gini = 0.0\nsamples = 1\nvalue = [1, 0, 0, 0, 0, 0, 0, 0, 0, 0, 0, 0, 0, 0\n0, 0, 0, 0, 0, 0, 0, 0, 0, 0]\nclass = [", fillcolor="#e58139"] ;
4 -> 5 ;
6 [label="Terrorist Attack <= 0.5\ngini = 0.952\nsamples = 21\nvalue = [0, 1, 1, 1, 1, 1, 1, 1, 1, 1, 1, 1, 1, 1\n1, 1, 0, 1, 0, 1, 1, 1, 1, 1]\nclass = 1", fillcolor="#ffffff"] ;
4 -> 6 ;
7 [label="Calendar Year <= 1987.5\ngini = 0.909\nsamples = 11\nvalue = [0, 1, 0, 1, 0, 0, 1, 1, 1, 1, 1, 0, 1, 0\n1, 0, 0, 1, 0, 0, 0, 0, 0, 1]\nclass = 1", fillcolor="#ffffff"] ;
6 -> 7 ;
8 [label="gini = 0.0\nsamples = 1\nvalue = [0, 0, 0, 0, 0, 0, 0, 0, 0, 0, 0, 0, 0, 0\n0, 0, 0, 0, 0, 0, 0, 0, 0, 1]\nclass = 5", fillcolor="#e55639"] ;
7 -> 8 ;
9 [label="Self-Inflicted <= 166.5\ngini = 0.9\nsamples = 10\nvalue = [0, 1, 0, 1, 0, 0, 1, 1, 1, 1, 1, 0, 1, 0\n1, 0, 0, 1, 0, 0, 0, 0, 0, 0]\nclass = 1", fillcolor="#ffffff"] ;
7 -> 9 ;
10 [label="gini = 0.0\nsamples = 1\nvalue = [0, 0, 0, 0, 0, 0, 0, 0, 1, 0, 0, 0, 0, 0\n0, 0, 0, 0, 0, 0, 0, 0, 0, 0]\nclass = ,", fillcolor="#39e581"] ;
9 -> 10 ;
11 [label="Self-Inflicted <= 178.0\ngini = 0.889\nsamples = 9\nvalue = [0, 1, 0, 1, 0, 0, 1, 1, 0, 1, 1, 0, 1, 0\n1, 0, 0, 1, 0, 0, 0, 0, 0, 0]\nclass = 1", fillcolor="#ffffff"] ;
9 -> 11 ;
12 [label="gini = 0.0\nsamples = 1\nvalue = [0, 0, 0, 0, 0, 0, 1, 0, 0, 0, 0, 0, 0, 0\n0, 0, 0, 0, 0, 0, 0, 0, 0, 0]\nclass = 3", fillcolor="#47e539"] ;
11 -> 12 ;
13 [label="Illness  <= 221.5\ngini = 0.875\nsamples = 8\nvalue = [0, 1, 0, 1, 0, 0, 0, 1, 0, 1, 1, 0, 1, 0\n1, 0, 0, 1, 0, 0, 0, 0, 0, 0]\nclass = 1", fillcolor="#ffffff"] ;
11 -> 13 ;
14 [label="gini = 0.0\nsamples = 1\nvalue = [0, 0, 0, 0, 0, 0, 0, 0, 0, 0, 0, 0, 1, 0\n0, 0, 0, 0, 0, 0, 0, 0, 0, 0]\nclass = 6", fillcolor="#399de5"] ;
13 -> 14 ;
15 [label="Selected Reserve FTE <= 130569.5\ngini = 0.857\nsamples = 7\nvalue = [0, 1, 0, 1, 0, 0, 0, 1, 0, 1, 1, 0, 0, 0\n1, 0, 0, 1, 0, 0, 0, 0, 0, 0]\nclass = 1", fillcolor="#ffffff"] ;
13 -> 15 ;
16 [label="gini = 0.0\nsamples = 1\nvalue = [0, 0, 0, 0, 0, 0, 0, 0, 0, 0, 0, 0, 0, 0\n0, 0, 0, 1, 0, 0, 0, 0, 0, 0]\nclass = ,", fillcolor="#ac39e5"] ;
15 -> 16 ;
17 [label="Illness  <= 237.5\ngini = 0.833\nsamples = 6\nvalue = [0, 1, 0, 1, 0, 0, 0, 1, 0, 1, 1, 0, 0, 0\n1, 0, 0, 0, 0, 0, 0, 0, 0, 0]\nclass = 1", fillcolor="#ffffff"] ;
15 -> 17 ;
18 [label="gini = 0.0\nsamples = 1\nvalue = [0, 1, 0, 0, 0, 0, 0, 0, 0, 0, 0, 0, 0, 0\n0, 0, 0, 0, 0, 0, 0, 0, 0, 0]\nclass = 1", fillcolor="#e5ac39"] ;
17 -> 18 ;
19 [label="Hostile Action <= 246.5\ngini = 0.8\nsamples = 5\nvalue = [0, 0, 0, 1, 0, 0, 0, 1, 0, 1, 1, 0, 0, 0\n1, 0, 0, 0, 0, 0, 0, 0, 0, 0]\nclass = 6", fillcolor="#ffffff"] ;
17 -> 19 ;
20 [label="gini = 0.0\nsamples = 1\nvalue = [0, 0, 0, 0, 0, 0, 0, 0, 0, 0, 0, 0, 0, 0\n1, 0, 0, 0, 0, 0, 0, 0, 0, 0]\nclass = 2", fillcolor="#3947e5"] ;
19 -> 20 ;
21 [label="Total Deaths <= 1500.0\ngini = 0.75\nsamples = 4\nvalue = [0, 0, 0, 1, 0, 0, 0, 1, 0, 1, 1, 0, 0, 0\n0, 0, 0, 0, 0, 0, 0, 0, 0, 0]\nclass = 6", fillcolor="#ffffff"] ;
19 -> 21 ;
22 [label="gini = 0.0\nsamples = 1\nvalue = [0, 0, 0, 0, 0, 0, 0, 0, 0, 0, 1, 0, 0, 0\n0, 0, 0, 0, 0, 0, 0, 0, 0, 0]\nclass = 1", fillcolor="#39e5d7"] ;
21 -> 22 ;
23 [label="Total Deaths <= 1681.0\ngini = 0.667\nsamples = 3\nvalue = [0, 0, 0, 1, 0, 0, 0, 1, 0, 1, 0, 0, 0, 0\n0, 0, 0, 0, 0, 0, 0, 0, 0, 0]\nclass = 6", fillcolor="#ffffff"] ;
21 -> 23 ;
24 [label="gini = 0.0\nsamples = 1\nvalue = [0, 0, 0, 0, 0, 0, 0, 0, 0, 1, 0, 0, 0, 0\n0, 0, 0, 0, 0, 0, 0, 0, 0, 0]\nclass =  ", fillcolor="#39e5ac"] ;
23 -> 24 ;
25 [label="Total Deaths <= 1888.0\ngini = 0.5\nsamples = 2\nvalue = [0, 0, 0, 1, 0, 0, 0, 1, 0, 0, 0, 0, 0, 0\n0, 0, 0, 0, 0, 0, 0, 0, 0, 0]\nclass = 6", fillcolor="#ffffff"] ;
23 -> 25 ;
26 [label="gini = 0.0\nsamples = 1\nvalue = [0, 0, 0, 0, 0, 0, 0, 1, 0, 0, 0, 0, 0, 0\n0, 0, 0, 0, 0, 0, 0, 0, 0, 0]\nclass = 8", fillcolor="#39e556"] ;
25 -> 26 ;
27 [label="gini = 0.0\nsamples = 1\nvalue = [0, 0, 0, 1, 0, 0, 0, 0, 0, 0, 0, 0, 0, 0\n0, 0, 0, 0, 0, 0, 0, 0, 0, 0]\nclass = 6", fillcolor="#c8e539"] ;
25 -> 27 ;
28 [label="Hostile Action <= 0.5\ngini = 0.9\nsamples = 10\nvalue = [0, 0, 1, 0, 1, 1, 0, 0, 0, 0, 0, 1, 0, 1\n0, 1, 0, 0, 0, 1, 1, 1, 1, 0]\nclass = 3", fillcolor="#ffffff"] ;
6 -> 28 ;
29 [label="Total Deaths <= 829.5\ngini = 0.857\nsamples = 7\nvalue = [0, 0, 1, 0, 1, 0, 0, 0, 0, 0, 0, 1, 0, 1\n0, 1, 0, 0, 0, 1, 0, 1, 0, 0]\nclass = 3", fillcolor="#ffffff"] ;
28 -> 29 ;
30 [label="gini = 0.0\nsamples = 1\nvalue = [0, 0, 0, 0, 1, 0, 0, 0, 0, 0, 0, 0, 0, 0\n0, 0, 0, 0, 0, 0, 0, 0, 0, 0]\nclass = 7", fillcolor="#9de539"] ;
29 -> 30 ;
31 [label="Terrorist Attack <= 3.0\ngini = 0.833\nsamples = 6\nvalue = [0, 0, 1, 0, 0, 0, 0, 0, 0, 0, 0, 1, 0, 1\n0, 1, 0, 0, 0, 1, 0, 1, 0, 0]\nclass = 3", fillcolor="#ffffff"] ;
29 -> 31 ;
32 [label="Total Deaths <= 1400.0\ngini = 0.5\nsamples = 2\nvalue = [0, 0, 0, 0, 0, 0, 0, 0, 0, 0, 0, 0, 0, 1\n0, 1, 0, 0, 0, 0, 0, 0, 0, 0]\nclass = 8", fillcolor="#ffffff"] ;
31 -> 32 ;
33 [label="gini = 0.0\nsamples = 1\nvalue = [0, 0, 0, 0, 0, 0, 0, 0, 0, 0, 0, 0, 0, 1\n0, 0, 0, 0, 0, 0, 0, 0, 0, 0]\nclass = 8", fillcolor="#3972e5"] ;
32 -> 33 ;
34 [label="gini = 0.0\nsamples = 1\nvalue = [0, 0, 0, 0, 0, 0, 0, 0, 0, 0, 0, 0, 0, 0\n0, 1, 0, 0, 0, 0, 0, 0, 0, 0]\nclass = 2", fillcolor="#5639e5"] ;
32 -> 34 ;
35 [label="Selected Reserve FTE <= 93831.5\ngini = 0.75\nsamples = 4\nvalue = [0, 0, 1, 0, 0, 0, 0, 0, 0, 0, 0, 1, 0, 0\n0, 0, 0, 0, 0, 1, 0, 1, 0, 0]\nclass = 3", fillcolor="#ffffff"] ;
31 -> 35 ;
36 [label="gini = 0.0\nsamples = 1\nvalue = [0, 0, 1, 0, 0, 0, 0, 0, 0, 0, 0, 0, 0, 0\n0, 0, 0, 0, 0, 0, 0, 0, 0, 0]\nclass = 3", fillcolor="#e5d739"] ;
35 -> 36 ;
37 [label="Illness  <= 247.5\ngini = 0.667\nsamples = 3\nvalue = [0, 0, 0, 0, 0, 0, 0, 0, 0, 0, 0, 1, 0, 0\n0, 0, 0, 0, 0, 1, 0, 1, 0, 0]\nclass = 3", fillcolor="#ffffff"] ;
35 -> 37 ;
38 [label="gini = 0.0\nsamples = 1\nvalue = [0, 0, 0, 0, 0, 0, 0, 0, 0, 0, 0, 1, 0, 0\n0, 0, 0, 0, 0, 0, 0, 0, 0, 0]\nclass = 3", fillcolor="#39c8e5"] ;
37 -> 38 ;
39 [label="Selected Reserve FTE <= 112321.0\ngini = 0.5\nsamples = 2\nvalue = [0, 0, 0, 0, 0, 0, 0, 0, 0, 0, 0, 0, 0, 0\n0, 0, 0, 0, 0, 1, 0, 1, 0, 0]\nclass = 1", fillcolor="#ffffff"] ;
37 -> 39 ;
40 [label="gini = 0.0\nsamples = 1\nvalue = [0, 0, 0, 0, 0, 0, 0, 0, 0, 0, 0, 0, 0, 0\n0, 0, 0, 0, 0, 0, 0, 1, 0, 0]\nclass = 7", fillcolor="#e53972"] ;
39 -> 40 ;
41 [label="gini = 0.0\nsamples = 1\nvalue = [0, 0, 0, 0, 0, 0, 0, 0, 0, 0, 0, 0, 0, 0\n0, 0, 0, 0, 0, 1, 0, 0, 0, 0]\nclass = 1", fillcolor="#e539c8"] ;
39 -> 41 ;
42 [label="Undetermined  <= 20.5\ngini = 0.667\nsamples = 3\nvalue = [0, 0, 0, 0, 0, 1, 0, 0, 0, 0, 0, 0, 0, 0\n0, 0, 0, 0, 0, 0, 1, 0, 1, 0]\nclass = 8", fillcolor="#ffffff"] ;
28 -> 42 ;
43 [label="gini = 0.0\nsamples = 1\nvalue = [0, 0, 0, 0, 0, 0, 0, 0, 0, 0, 0, 0, 0, 0\n0, 0, 0, 0, 0, 0, 1, 0, 0, 0]\nclass = 3", fillcolor="#e5399d"] ;
42 -> 43 ;
44 [label="Total Deaths <= 1711.5\ngini = 0.5\nsamples = 2\nvalue = [0, 0, 0, 0, 0, 1, 0, 0, 0, 0, 0, 0, 0, 0\n0, 0, 0, 0, 0, 0, 0, 0, 1, 0]\nclass = 8", fillcolor="#ffffff"] ;
42 -> 44 ;
45 [label="gini = 0.0\nsamples = 1\nvalue = [0, 0, 0, 0, 0, 1, 0, 0, 0, 0, 0, 0, 0, 0\n0, 0, 0, 0, 0, 0, 0, 0, 0, 0]\nclass = 8", fillcolor="#72e539"] ;
44 -> 45 ;
46 [label="gini = 0.0\nsamples = 1\nvalue = [0, 0, 0, 0, 0, 0, 0, 0, 0, 0, 0, 0, 0, 0\n0, 0, 0, 0, 0, 0, 0, 0, 1, 0]\nclass = 1", fillcolor="#e53947"] ;
44 -> 46 ;
}